1
1
1
1
-4.181090689758154
5.249178762910045
6.136862500101608
8.500475737822553
-0.6781858255613038
-2.6538014017169633
-3.740854994161616
1.4548536306563433
7.09263186135448
1.7185872231484365
3.8166684191958864
-17.541650161507533
1.8748731588640093
3.0649200356475865
3.900224894192848
5.495603155574041
-4.684228366553179
-3.7690391951804787
0.12103885240771357
3.2479788789487265
-0.9635270879157417
-7.472428927878281
-1.7783763787753453
2.020302454335806
-1.6089810915697553
-1.8773813567421247
4.799424080663804
10.300340804090332
1.9611755384530456
4.161254708330044
-0.021831989265108424
1.4292870938586333
-8.411628010597202
-6.963332942255896
-0.7320600157940576
0.33744227011168887
4.434582802945055
0.05045851918693539
3.0028257004861714
1.8528163554741963
4.976530508750681
5.838368188458852
-4.8871987558681615
-3.356816237063594
1.8141250459365337
5.908731063284589
-1.963283673347282
-2.0558881769854978
-2.368246517124368
-3.116684773528687
-9.207275392683526
-7.685966670900459
1.9414342368113207
-4.090502450018499
0.5315317344375036
-2.7491926456767772
-4.058836720425135
-2.0468300254080405
-5.744488741466443
-5.315365408283973
-3.405421220579013
-5.081194048329102
0.1440965595442188
-2.171576182231918
5.499887938798817
-3.799634937045695
-10.54776340410546
-7.096551432925592
-6.896804603458177
7.842177412273452
0.2830784595984634
-1.5607816055639119
